<?xml version="1.0"?>
<opencv_storage>
<cascade>
  <stageType>BOOST</stageType>
  <featureType>LBP</featureType>
  <height>80</height>
  <width>80</width>
  <stageParams>
    <boostType>GAB</boostType>
    <minHitRate>9.9500000476837158e-01</minHitRate>
    <maxFalseAlarm>5.0000000000000000e-01</maxFalseAlarm>
    <weightTrimRate>9.4999999999999996e-01</weightTrimRate>
    <maxDepth>1</maxDepth>
    <maxWeakCount>100</maxWeakCount></stageParams>
  <featureParams>
    <maxCatCount>256</maxCatCount>
    <featSize>1</featSize></featureParams>
  <stageNum>10</stageNum>
  <stages>
    <!-- stage 0 -->
    <_>
      <maxWeakCount>2</maxWeakCount>
      <stageThreshold>-1.5174132585525513e-01</stageThreshold>
      <weakClassifiers>
        <_>
          <internalNodes>
            0 -1 1 -606348801 -209465337 -980086591 -745303051
            -779430229 -929464189 -984891165 -3657</internalNodes>
          <leafValues>
            -9.8965871334075928e-01 8.3999997377395630e-01</leafValues></_>
        <_>
          <internalNodes>
            0 -1 8 -35914241 -685903457 -778448613 -780418105
            -1683674261 -380923859 -241704449 -12289</internalNodes>
          <leafValues>
            -9.8615717887878418e-01 8.3791738748550415e-01</leafValues></_></weakClassifiers></_>
    <!-- stage 1 -->
    <_>
      <maxWeakCount>3</maxWeakCount>
      <stageThreshold>-1.2040820121765137e+00</stageThreshold>
      <weakClassifiers>
        <_>
          <internalNodes>
            0 -1 21 -2359297 -1253863945 1896192339 -610806417
            -670434305 -1194612341 -82576177 -2049</internalNodes>
          <leafValues>
            -9.7139936685562134e-01 8.8636362552642822e-01</leafValues></_>
        <_>
          <internalNodes>
            0 -1 19 -169880577 -11038253 -652016673 -18894601
            -1115428641 -30703606 -259006465 -84153409</internalNodes>
          <leafValues>
            -9.8343724012374878e-01 7.0615458488464355e-01</leafValues></_>
        <_>
          <internalNodes>
            0 -1 18 -8388609 -36055185 -250768161 -2124897 -234095905
            -7882733 -1264587169 -19202113</internalNodes>
          <leafValues>
            -9.8694145679473877e-01 7.5075453519821167e-01</leafValues></_></weakClassifiers></_>
    <!-- stage 2 -->
    <_>
      <maxWeakCount>3</maxWeakCount>
      <stageThreshold>-1.2716348171234131e+00</stageThreshold>
      <weakClassifiers>
        <_>
          <internalNodes>
            0 -1 14 -113191969 999358681 -645851681 -183383733
            -1474515201 -1417117542 -376919109 -69480309</internalNodes>
          <leafValues>
            -9.7938144207000732e-01 7.9381442070007324e-01</leafValues></_>
        <_>
          <internalNodes>
            0 -1 13 -653684225 -80410091 285279707 -15232869 -1988065089
            -98008952 -1710630209 -594691429</internalNodes>
          <leafValues>
            -9.7174537181854248e-01 7.7940881252288818e-01</leafValues></_>
        <_>
          <internalNodes>
            0 -1 22 -102762497 -611200619 -2057748257 -98627313
            -1442468881 -70545000 -552359249 -893392405</internalNodes>
          <leafValues>
            -9.8631662130355835e-01 6.7949199676513672e-01</leafValues></_></weakClassifiers></_>
    <!-- stage 3 -->
    <_>
      <maxWeakCount>3</maxWeakCount>
      <stageThreshold>-1.2224928140640259e+00</stageThreshold>
      <weakClassifiers>
        <_>
          <internalNodes>
            0 -1 9 -245910561 -1076764171 17306045 -14729117 -1316386629
            -627539830 -820934469 -6978893</internalNodes>
          <leafValues>
            -9.7107440233230591e-01 6.7676764726638794e-01</leafValues></_>
        <_>
          <internalNodes>
            0 -1 24 -145230857 -1693982133 17743898 -1243494005
            -258221845 -1408139109 -1014761745 -3153</internalNodes>
          <leafValues>
            -9.4498872756958008e-01 7.8252565860748291e-01</leafValues></_>
        <_>
          <internalNodes>
            0 -1 26 -209715745 -174726901 -2129641397 -620498557
            -123226929 -360480766 -644095265 1945107455</internalNodes>
          <leafValues>
            -9.8823434114456177e-01 6.9357031583786011e-01</leafValues></_></weakClassifiers></_>
    <!-- stage 4 -->
    <_>
      <maxWeakCount>2</maxWeakCount>
      <stageThreshold>-4.2967626452445984e-01</stageThreshold>
      <weakClassifiers>
        <_>
          <internalNodes>
            0 -1 11 -639903233 -10489825 -720792163 -115388067 -99877185
            -608993138 -1734738945 -292937</internalNodes>
          <leafValues>
            -9.6516394615173340e-01 7.5824177265167236e-01</leafValues></_>
        <_>
          <internalNodes>
            0 -1 20 -1107298337 903344219 -2071603367 -34106881
            -74712065 -118898512 -1437750849 -2098469</internalNodes>
          <leafValues>
            -9.8218744993209839e-01 5.3548765182495117e-01</leafValues></_></weakClassifiers></_>
    <!-- stage 5 -->
    <_>
      <maxWeakCount>3</maxWeakCount>
      <stageThreshold>-1.2724466323852539e+00</stageThreshold>
      <weakClassifiers>
        <_>
          <internalNodes>
            0 -1 3 -48235041 -770973457 -1052643281 -578305589
            -237811041 314638476 -259561045 -67109889</internalNodes>
          <leafValues>
            -9.5727366209030151e-01 8.0952382087707520e-01</leafValues></_>
        <_>
          <internalNodes>
            0 -1 10 -683672577 -581099373 -786986531 -16173799
            1586321915 -5792983 -1149138693 -1324661</internalNodes>
          <leafValues>
            -9.4085657596588135e-01 7.3248797655105591e-01</leafValues></_>
        <_>
          <internalNodes>
            0 -1 25 -103809025 -169217537 -112864489 -6424341 -710678341
            -1199072629 -108275285 2147478063</internalNodes>
          <leafValues>
            -9.8910194635391235e-01 6.2568366527557373e-01</leafValues></_></weakClassifiers></_>
    <!-- stage 6 -->
    <_>
      <maxWeakCount>3</maxWeakCount>
      <stageThreshold>-1.3215306997299194e+00</stageThreshold>
      <weakClassifiers>
        <_>
          <internalNodes>
            0 -1 6 -713687041 -571214881 -979554925 -207629619
            -771804161 -22866774 -86251797 -1053697</internalNodes>
          <leafValues>
            -9.6280992031097412e-01 5.9595960378646851e-01</leafValues></_>
        <_>
          <internalNodes>
            0 -1 7 -11543553 -2776677 -1882730081 -36182049 -143747649
            -22421013 -385156609 -8392873</internalNodes>
          <leafValues>
            -9.3757444620132446e-01 6.2108790874481201e-01</leafValues></_>
        <_>
          <internalNodes>
            0 -1 5 -746979329 -715947813 -788278273 -36180522 -115283201
            -1165424488 -1426990657 2074836951</internalNodes>
          <leafValues>
            -9.7980862855911255e-01 6.3257634639739990e-01</leafValues></_></weakClassifiers></_>
    <!-- stage 7 -->
    <_>
      <maxWeakCount>3</maxWeakCount>
      <stageThreshold>-1.2393507957458496e+00</stageThreshold>
      <weakClassifiers>
        <_>
          <internalNodes>
            0 -1 17 -234881065 -36235937 -582919713 -175119431
            -1420309089 -72638033 -1819283473 -16778305</internalNodes>
          <leafValues>
            -9.5656669139862061e-01 5.1999998092651367e-01</leafValues></_>
        <_>
          <internalNodes>
            0 -1 4 -748683265 -738737937 2063823263 -35925669 -812685393
            -1146383981 2110649327 -275537</internalNodes>
          <leafValues>
            -9.1397899389266968e-01 7.1909600496292114e-01</leafValues></_>
        <_>
          <internalNodes>
            0 -1 23 -1 -1287917293 -1037975345 -1193294706 -790115681
            -1011695185 -490870113 2147483647</internalNodes>
          <leafValues>
            -9.6985650062561035e-01 6.3119494915008545e-01</leafValues></_></weakClassifiers></_>
    <!-- stage 8 -->
    <_>
      <maxWeakCount>2</maxWeakCount>
      <stageThreshold>-4.4176778197288513e-01</stageThreshold>
      <weakClassifiers>
        <_>
          <internalNodes>
            0 -1 2 -539231297 -675031149 -1525176993 -540550389
            -519912481 -1868356469 -437812293 -2057</internalNodes>
          <leafValues>
            -9.4111675024032593e-01 6.5853661298751831e-01</leafValues></_>
        <_>
          <internalNodes>
            0 -1 0 -69220353 -141868905 286607263 -136494693 -102065153
            -343104579 -435431269 2139094015</internalNodes>
          <leafValues>
            -9.8869425058364868e-01 4.9934899806976318e-01</leafValues></_></weakClassifiers></_>
    <!-- stage 9 -->
    <_>
      <maxWeakCount>3</maxWeakCount>
      <stageThreshold>-1.1614294052124023e+00</stageThreshold>
      <weakClassifiers>
        <_>
          <internalNodes>
            0 -1 12 1364576255 -49049187 391694815 -537017507
            -1975012417 -68490597 -394163525 -3673865</internalNodes>
          <leafValues>
            -9.6871739625930786e-01 5.1851850748062134e-01</leafValues></_>
        <_>
          <internalNodes>
            0 -1 16 -740821505 1066632159 -769403745 -1613688361
            -787967525 -1146574837 -1971073649 -1115043681</internalNodes>
          <leafValues>
            -9.3615609407424927e-01 6.1845892667770386e-01</leafValues></_>
        <_>
          <internalNodes>
            0 -1 15 -968163841 -605370233 -2062296649 -1130975209
            -259785761 -216483777 -1475759409 -134219938</internalNodes>
          <leafValues>
            -9.0862804651260376e-01 7.4344414472579956e-01</leafValues></_></weakClassifiers></_></stages>
  <features>
    <_>
      <rect>
        0 0 4 3</rect></_>
    <_>
      <rect>
        0 2 9 8</rect></_>
    <_>
      <rect>
        0 6 4 15</rect></_>
    <_>
      <rect>
        0 29 3 14</rect></_>
    <_>
      <rect>
        0 56 6 8</rect></_>
    <_>
      <rect>
        0 74 5 2</rect></_>
    <_>
      <rect>
        1 45 7 11</rect></_>
    <_>
      <rect>
        2 0 7 6</rect></_>
    <_>
      <rect>
        3 59 7 5</rect></_>
    <_>
      <rect>
        4 1 17 2</rect></_>
    <_>
      <rect>
        4 71 18 3</rect></_>
    <_>
      <rect>
        11 0 9 4</rect></_>
    <_>
      <rect>
        13 0 11 3</rect></_>
    <_>
      <rect>
        25 0 18 3</rect></_>
    <_>
      <rect>
        25 71 17 3</rect></_>
    <_>
      <rect>
        28 30 5 6</rect></_>
    <_>
      <rect>
        38 71 9 3</rect></_>
    <_>
      <rect>
        46 0 8 4</rect></_>
    <_>
      <rect>
        51 0 5 6</rect></_>
    <_>
      <rect>
        52 2 9 7</rect></_>
    <_>
      <rect>
        52 62 6 6</rect></_>
    <_>
      <rect>
        59 47 7 11</rect></_>
    <_>
      <rect>
        62 9 6 6</rect></_>
    <_>
      <rect>
        71 22 3 19</rect></_>
    <_>
      <rect>
        71 27 3 16</rect></_>
    <_>
      <rect>
        74 66 2 3</rect></_>
    <_>
      <rect>
        77 5 1 3</rect></_></features></cascade>
</opencv_storage>
