<?xml version="1.0"?>
<opencv_storage>
<cascade>
  <stageType>BOOST</stageType>
  <featureType>LBP</featureType>
  <height>48</height>
  <width>48</width>
  <stageParams>
    <boostType>GAB</boostType>
    <minHitRate>9.9500000476837158e-01</minHitRate>
    <maxFalseAlarm>5.0000000000000000e-01</maxFalseAlarm>
    <weightTrimRate>9.4999999999999996e-01</weightTrimRate>
    <maxDepth>1</maxDepth>
    <maxWeakCount>100</maxWeakCount></stageParams>
  <featureParams>
    <maxCatCount>256</maxCatCount>
    <featSize>1</featSize></featureParams>
  <stageNum>23</stageNum>
  <stages>
    <!-- stage 0 -->
    <_>
      <maxWeakCount>2</maxWeakCount>
      <stageThreshold>-4.4008560478687286e-02</stageThreshold>
      <weakClassifiers>
        <_>
          <internalNodes>
            0 -1 6 -788343841 -796323823 268535891 -721223671
            -1878456288 -1457487872 671121595 -74460941</internalNodes>
          <leafValues>
            -9.8312234878540039e-01 9.1666668653488159e-01</leafValues></_>
        <_>
          <internalNodes>
            0 -1 16 -787396005 -754761709 769 1360351236 1610629130
            -394199040 1107296474 -1077166069</internalNodes>
          <leafValues>
            -9.6067523956298828e-01 9.7011494636535645e-01</leafValues></_></weakClassifiers></_>
    <!-- stage 1 -->
    <_>
      <maxWeakCount>2</maxWeakCount>
      <stageThreshold>-4.3263431638479233e-02</stageThreshold>
      <weakClassifiers>
        <_>
          <internalNodes>
            0 -1 28 -644746857 -2046689279 1090621467 352829464
            -1609856518 159449250 -2029420341 -5519217</internalNodes>
          <leafValues>
            -9.8319327831268311e-01 9.3277311325073242e-01</leafValues></_>
        <_>
          <internalNodes>
            0 -1 31 -1034434341 1346584579 65539 -804831231 4425770
            -805109758 -2139061861 -353650485</internalNodes>
          <leafValues>
            -9.7603654861450195e-01 9.5558238029479980e-01</leafValues></_></weakClassifiers></_>
    <!-- stage 2 -->
    <_>
      <maxWeakCount>2</maxWeakCount>
      <stageThreshold>-9.3233212828636169e-02</stageThreshold>
      <weakClassifiers>
        <_>
          <internalNodes>
            0 -1 15 -801926689 -1828646647 1358955413 -678231597
            -796343809 2013790211 -2147425661 -551558459</internalNodes>
          <leafValues>
            -9.7468352317810059e-01 8.9999997615814209e-01</leafValues></_>
        <_>
          <internalNodes>
            0 -1 2 -146539553 -937345024 33689603 -1056595707
            -2129575025 1074397185 1224835203 -12324763</internalNodes>
          <leafValues>
            -9.9187344312667847e-01 8.8145035505294800e-01</leafValues></_></weakClassifiers></_>
    <!-- stage 3 -->
    <_>
      <maxWeakCount>2</maxWeakCount>
      <stageThreshold>-5.1632199436426163e-02</stageThreshold>
      <weakClassifiers>
        <_>
          <internalNodes>
            0 -1 34 -571999875 -218078893 268501783 -350796543
            -997751269 -1467383744 -1835678947 -602353137</internalNodes>
          <leafValues>
            -9.8312234878540039e-01 9.1666668653488159e-01</leafValues></_>
        <_>
          <internalNodes>
            0 -1 35 -142353425 -217823888 -1601937389 -947535487
            -1588100445 -1551630299 -996147037 -559222581</internalNodes>
          <leafValues>
            -9.6829885244369507e-01 9.5585471391677856e-01</leafValues></_></weakClassifiers></_>
    <!-- stage 4 -->
    <_>
      <maxWeakCount>2</maxWeakCount>
      <stageThreshold>-4.5855250209569931e-02</stageThreshold>
      <weakClassifiers>
        <_>
          <internalNodes>
            0 -1 1 -2062810657 -586873839 494997597 -41875455
            -1609398085 -117309431 -1996445543 -74186606</internalNodes>
          <leafValues>
            -9.2741936445236206e-01 9.8165136575698853e-01</leafValues></_>
        <_>
          <internalNodes>
            0 -1 17 -11185669 -741801576 16973975 -719228413 -2084499851
            975782118 -1807567734 -106217333</internalNodes>
          <leafValues>
            -9.9199628829956055e-01 8.8156408071517944e-01</leafValues></_></weakClassifiers></_>
    <!-- stage 5 -->
    <_>
      <maxWeakCount>2</maxWeakCount>
      <stageThreshold>-1.1269448697566986e-01</stageThreshold>
      <weakClassifiers>
        <_>
          <internalNodes>
            0 -1 23 1358991581 520683521 17301917 -552402791 -1879010839
            -100630517 554172811 -120880759</internalNodes>
          <leafValues>
            -9.3388432264328003e-01 8.9565217494964600e-01</leafValues></_>
        <_>
          <internalNodes>
            0 -1 37 -1834683971 -2129002483 134287873 18456705
            -1610456902 -1912061823 -595492661 2076944639</internalNodes>
          <leafValues>
            -9.8385834693908691e-01 8.2118982076644897e-01</leafValues></_></weakClassifiers></_>
    <!-- stage 6 -->
    <_>
      <maxWeakCount>2</maxWeakCount>
      <stageThreshold>-2.2814139723777771e-01</stageThreshold>
      <weakClassifiers>
        <_>
          <internalNodes>
            0 -1 26 -1185691425 -1593241597 -2130689761 1493241857
            -2134841190 -938965888 1216383370 -896548709</internalNodes>
          <leafValues>
            -9.6475768089294434e-01 7.3846155405044556e-01</leafValues></_>
        <_>
          <internalNodes>
            0 -1 0 -1031572005 403865601 196633 -780070655 -2146926388
            -1744731968 -1542879090 1594605791</internalNodes>
          <leafValues>
            -9.6660292148590088e-01 7.7324867248535156e-01</leafValues></_></weakClassifiers></_>
    <!-- stage 7 -->
    <_>
      <maxWeakCount>2</maxWeakCount>
      <stageThreshold>-1.8654371798038483e-01</stageThreshold>
      <weakClassifiers>
        <_>
          <internalNodes>
            0 -1 3 -129953313 -1786406829 21037595 -1186135295
            -1987456083 -1693974392 276824199 -618678269</internalNodes>
          <leafValues>
            -9.8253273963928223e-01 7.9687500000000000e-01</leafValues></_>
        <_>
          <internalNodes>
            0 -1 41 -639635321 285245953 -1593835518 -2130476800
            1610795210 402737152 1082277889 1805902219</internalNodes>
          <leafValues>
            -9.8341870307922363e-01 8.0760431289672852e-01</leafValues></_></weakClassifiers></_>
    <!-- stage 8 -->
    <_>
      <maxWeakCount>2</maxWeakCount>
      <stageThreshold>-8.3457440137863159e-02</stageThreshold>
      <weakClassifiers>
        <_>
          <internalNodes>
            0 -1 22 -184495661 -788528879 553719129 -1123287024
            1216908731 -926875488 -2004301603 -1199013878</internalNodes>
          <leafValues>
            -9.3360996246337891e-01 8.7931036949157715e-01</leafValues></_>
        <_>
          <internalNodes>
            0 -1 24 1908537309 492044375 83936567 -1857224672
            -1727280997 -1433911296 -2139061624 -1198814578</internalNodes>
          <leafValues>
            -9.5294183492660522e-01 8.5015249252319336e-01</leafValues></_></weakClassifiers></_>
    <!-- stage 9 -->
    <_>
      <maxWeakCount>2</maxWeakCount>
      <stageThreshold>-2.0537017285823822e-01</stageThreshold>
      <weakClassifiers>
        <_>
          <internalNodes>
            0 -1 4 -121120769 1502481393 1074463061 -644093293
            1086359819 -2122150677 -804871917 -13651177</internalNodes>
          <leafValues>
            -9.8253273963928223e-01 7.9687500000000000e-01</leafValues></_>
        <_>
          <internalNodes>
            0 -1 19 -104080389 2038540291 16778501 -175390457
            -1073561425 -1592786936 -1593204581 2121005291</internalNodes>
          <leafValues>
            -9.9158757925033569e-01 7.7716255187988281e-01</leafValues></_></weakClassifiers></_>
    <!-- stage 10 -->
    <_>
      <maxWeakCount>2</maxWeakCount>
      <stageThreshold>-1.4363506436347961e-01</stageThreshold>
      <weakClassifiers>
        <_>
          <internalNodes>
            0 -1 30 -243142209 -572817067 -1862172573 369557507
            570533531 -1602082525 -1710878069 -353245045</internalNodes>
          <leafValues>
            -9.5744681358337402e-01 8.3606559038162231e-01</leafValues></_>
        <_>
          <internalNodes>
            0 -1 11 -247282721 -796131315 1514248195 -157695993
            -1602127313 -1970929656 486688995 -89409097</internalNodes>
          <leafValues>
            -9.6758168935775757e-01 8.1381171941757202e-01</leafValues></_></weakClassifiers></_>
    <!-- stage 11 -->
    <_>
      <maxWeakCount>2</maxWeakCount>
      <stageThreshold>-1.6221421957015991e-01</stageThreshold>
      <weakClassifiers>
        <_>
          <internalNodes>
            0 -1 7 -794699777 1963655176 8476699 -705097727 413712569
            -1731657598 -1979670355 1001638035</internalNodes>
          <leafValues>
            -9.9107140302658081e-01 7.4436092376708984e-01</leafValues></_>
        <_>
          <internalNodes>
            0 -1 36 -750528545 -2004679880 1367408913 357679427
            -2104786470 589825 -927880445 -37237813</internalNodes>
          <leafValues>
            -9.0657514333724976e-01 9.1800945997238159e-01</leafValues></_></weakClassifiers></_>
    <!-- stage 12 -->
    <_>
      <maxWeakCount>2</maxWeakCount>
      <stageThreshold>-1.4754344522953033e-01</stageThreshold>
      <weakClassifiers>
        <_>
          <internalNodes>
            0 -1 38 -788409641 1899036689 -2130701829 -577683317
            -1056405322 -595558392 1107929291 2143256719</internalNodes>
          <leafValues>
            -9.4871795177459717e-01 8.0487805604934692e-01</leafValues></_>
        <_>
          <internalNodes>
            0 -1 32 -652685037 -1517223827 -1809297357 -1929248495
            -769621591 -2010111947 -220051317 -544239479</internalNodes>
          <leafValues>
            -9.5242148637771606e-01 8.5079425573348999e-01</leafValues></_></weakClassifiers></_>
    <!-- stage 13 -->
    <_>
      <maxWeakCount>2</maxWeakCount>
      <stageThreshold>-1.6508936882019043e-01</stageThreshold>
      <weakClassifiers>
        <_>
          <internalNodes>
            0 -1 27 -1526632225 -171609471 19202515 -268345257 839682459
            -77495288 -1928819809 -568343885</internalNodes>
          <leafValues>
            -9.4067794084548950e-01 8.1818181276321411e-01</leafValues></_>
        <_>
          <internalNodes>
            0 -1 18 -170956289 -1576992177 1611108618 61415425
            -1970583607 -2147333885 -930725713 -35403541</internalNodes>
          <leafValues>
            -9.5929867029190063e-01 7.7558863162994385e-01</leafValues></_></weakClassifiers></_>
    <!-- stage 14 -->
    <_>
      <maxWeakCount>2</maxWeakCount>
      <stageThreshold>-2.2417946159839630e-01</stageThreshold>
      <weakClassifiers>
        <_>
          <internalNodes>
            0 -1 45 -782773257 1359153152 -2147465648 1388544011
            1174651019 -1744789504 -1034844157 1407943571</internalNodes>
          <leafValues>
            -9.8222219944000244e-01 7.4242424964904785e-01</leafValues></_>
        <_>
          <internalNodes>
            0 -1 40 -670830249 -644382718 -2147482605 1631699265
            -2113585127 -754777981 -1610448381 1617426007</internalNodes>
          <leafValues>
            -9.6660369634628296e-01 7.8203767538070679e-01</leafValues></_></weakClassifiers></_>
    <!-- stage 15 -->
    <_>
      <maxWeakCount>2</maxWeakCount>
      <stageThreshold>-8.5907578468322754e-02</stageThreshold>
      <weakClassifiers>
        <_>
          <internalNodes>
            0 -1 25 1561576411 488214548 -1929379745 -570845942
            -2147483457 -1155956727 -1993705333 -1090477877</internalNodes>
          <leafValues>
            -9.0946501493453979e-01 8.5964912176132202e-01</leafValues></_>
        <_>
          <internalNodes>
            0 -1 8 -204232229 1363263502 1753327875 -150372350
            -1593603957 -1710227437 26141011 -177217533</internalNodes>
          <leafValues>
            -9.4555670022964478e-01 8.2967352867126465e-01</leafValues></_></weakClassifiers></_>
    <!-- stage 16 -->
    <_>
      <maxWeakCount>2</maxWeakCount>
      <stageThreshold>-2.0091772079467773e-01</stageThreshold>
      <weakClassifiers>
        <_>
          <internalNodes>
            0 -1 13 1939017983 -801111979 16778395 -1320871936
            -1300063829 -105250687 -1207725830 1300334765</internalNodes>
          <leafValues>
            -9.5633184909820557e-01 7.5000000000000000e-01</leafValues></_>
        <_>
          <internalNodes>
            0 -1 21 -505554481 -796295165 -2080276403 -360070136
            -1067052965 1108017187 -1073504245 -81556575</internalNodes>
          <leafValues>
            -9.5091772079467773e-01 7.9251593351364136e-01</leafValues></_></weakClassifiers></_>
    <!-- stage 17 -->
    <_>
      <maxWeakCount>2</maxWeakCount>
      <stageThreshold>-2.3925788700580597e-01</stageThreshold>
      <weakClassifiers>
        <_>
          <internalNodes>
            0 -1 43 -620636929 1363501315 282713 -1861894141 -2147433814
            -218103797 -1828015709 2076959439</internalNodes>
          <leafValues>
            -9.7333335876464844e-01 7.2727274894714355e-01</leafValues></_>
        <_>
          <internalNodes>
            0 -1 29 -1056449065 185929811 -1811855913 1578729729
            -828120856 -1306459775 -1065070889 -471883557</internalNodes>
          <leafValues>
            -9.6653062105178833e-01 7.7986097335815430e-01</leafValues></_></weakClassifiers></_>
    <!-- stage 18 -->
    <_>
      <maxWeakCount>2</maxWeakCount>
      <stageThreshold>-1.9760690629482269e-01</stageThreshold>
      <weakClassifiers>
        <_>
          <internalNodes>
            0 -1 42 -741257031 -619446252 -1853882055 -183435263
            -251588167 -1181744576 -1476351570 2074544298</internalNodes>
          <leafValues>
            -9.5670998096466064e-01 7.7777779102325439e-01</leafValues></_>
        <_>
          <internalNodes>
            0 -1 5 1365232095 -787808123 268500995 -150929389 -998178503
            532612 1108427247 -321924721</internalNodes>
          <leafValues>
            -9.5059800148010254e-01 7.5910305976867676e-01</leafValues></_></weakClassifiers></_>
    <!-- stage 19 -->
    <_>
      <maxWeakCount>2</maxWeakCount>
      <stageThreshold>-2.7193862199783325e-01</stageThreshold>
      <weakClassifiers>
        <_>
          <internalNodes>
            0 -1 44 -262675737 -1312731135 -2130657247 -1652022266
            134316231 1317044226 -1560199039 2068557967</internalNodes>
          <leafValues>
            -9.8139536380767822e-01 6.1971831321716309e-01</leafValues></_>
        <_>
          <internalNodes>
            0 -1 9 -406727201 -696156091 1107316869 -1320056191
            -1811854291 -1463760803 -396328214 -132937693</internalNodes>
          <leafValues>
            -8.9165693521499634e-01 7.6882851123809814e-01</leafValues></_></weakClassifiers></_>
    <!-- stage 20 -->
    <_>
      <maxWeakCount>2</maxWeakCount>
      <stageThreshold>-2.8474593162536621e-01</stageThreshold>
      <weakClassifiers>
        <_>
          <internalNodes>
            0 -1 39 -469415473 -506289966 956305419 -1786052013
            -1844346878 -1953421283 -1001815861 1610334403</internalNodes>
          <leafValues>
            -9.6444445848464966e-01 7.1212118864059448e-01</leafValues></_>
        <_>
          <internalNodes>
            0 -1 12 -1701717537 -670990333 151257217 -989477357
            -671088433 -1067449696 199442571 1976159443</internalNodes>
          <leafValues>
            -9.6518582105636597e-01 6.7969852685928345e-01</leafValues></_></weakClassifiers></_>
    <!-- stage 21 -->
    <_>
      <maxWeakCount>2</maxWeakCount>
      <stageThreshold>-9.5663756132125854e-02</stageThreshold>
      <weakClassifiers>
        <_>
          <internalNodes>
            0 -1 14 2030147955 -380780277 134414617 2080440386
            -2142732194 -922222070 -528448439 -334835181</internalNodes>
          <leafValues>
            -9.0871369838714600e-01 8.2758623361587524e-01</leafValues></_>
        <_>
          <internalNodes>
            0 -1 33 -1188694625 272994307 16783443 486638592 -787971325
            692133890 -461274945 -71634930</internalNodes>
          <leafValues>
            -9.2324995994567871e-01 8.3942526578903198e-01</leafValues></_></weakClassifiers></_>
    <!-- stage 22 -->
    <_>
      <maxWeakCount>2</maxWeakCount>
      <stageThreshold>-1.9678524136543274e-01</stageThreshold>
      <weakClassifiers>
        <_>
          <internalNodes>
            0 -1 20 -1861119525 430964752 8388617 -1257701360 1082233496
            -938311550 9470363 -1392443005</internalNodes>
          <leafValues>
            -9.0638297796249390e-01 7.3770493268966675e-01</leafValues></_>
        <_>
          <internalNodes>
            0 -1 10 -536611393 -1073676285 -2147418111 352715013
            1073980449 -2147401726 1107302530 2034749643</internalNodes>
          <leafValues>
            -9.3449014425277710e-01 7.4189573526382446e-01</leafValues></_></weakClassifiers></_></stages>
  <features>
    <_>
      <rect>
        0 0 2 2</rect></_>
    <_>
      <rect>
        0 0 11 2</rect></_>
    <_>
      <rect>
        0 1 4 5</rect></_>
    <_>
      <rect>
        0 2 7 3</rect></_>
    <_>
      <rect>
        0 3 4 4</rect></_>
    <_>
      <rect>
        0 27 3 5</rect></_>
    <_>
      <rect>
        0 38 7 3</rect></_>
    <_>
      <rect>
        0 45 2 1</rect></_>
    <_>
      <rect>
        1 9 3 4</rect></_>
    <_>
      <rect>
        1 31 5 4</rect></_>
    <_>
      <rect>
        1 35 1 3</rect></_>
    <_>
      <rect>
        1 36 4 3</rect></_>
    <_>
      <rect>
        1 39 2 2</rect></_>
    <_>
      <rect>
        1 44 3 1</rect></_>
    <_>
      <rect>
        2 0 4 4</rect></_>
    <_>
      <rect>
        2 0 7 3</rect></_>
    <_>
      <rect>
        2 34 3 3</rect></_>
    <_>
      <rect>
        3 36 5 4</rect></_>
    <_>
      <rect>
        4 30 3 6</rect></_>
    <_>
      <rect>
        6 1 1 1</rect></_>
    <_>
      <rect>
        7 0 7 2</rect></_>
    <_>
      <rect>
        8 0 2 4</rect></_>
    <_>
      <rect>
        14 0 11 2</rect></_>
    <_>
      <rect>
        15 0 11 2</rect></_>
    <_>
      <rect>
        15 39 11 3</rect></_>
    <_>
      <rect>
        17 42 9 2</rect></_>
    <_>
      <rect>
        22 41 8 2</rect></_>
    <_>
      <rect>
        27 1 5 2</rect></_>
    <_>
      <rect>
        27 36 7 4</rect></_>
    <_>
      <rect>
        27 39 6 3</rect></_>
    <_>
      <rect>
        30 0 6 4</rect></_>
    <_>
      <rect>
        33 1 5 5</rect></_>
    <_>
      <rect>
        33 32 5 4</rect></_>
    <_>
      <rect>
        34 38 3 3</rect></_>
    <_>
      <rect>
        35 1 2 4</rect></_>
    <_>
      <rect>
        36 0 3 6</rect></_>
    <_>
      <rect>
        39 26 3 6</rect></_>
    <_>
      <rect>
        39 39 3 2</rect></_>
    <_>
      <rect>
        41 0 2 1</rect></_>
    <_>
      <rect>
        42 0 2 3</rect></_>
    <_>
      <rect>
        42 5 2 9</rect></_>
    <_>
      <rect>
        42 14 2 11</rect></_>
    <_>
      <rect>
        42 43 2 1</rect></_>
    <_>
      <rect>
        44 39 1 1</rect></_>
    <_>
      <rect>
        45 4 1 2</rect></_>
    <_>
      <rect>
        45 37 1 3</rect></_></features></cascade>
</opencv_storage>
