<?xml version="1.0"?>
<opencv_storage>
<cascade>
  <stageType>BOOST</stageType>
  <featureType>LBP</featureType>
  <height>48</height>
  <width>48</width>
  <stageParams>
    <boostType>GAB</boostType>
    <minHitRate>9.9500000476837158e-01</minHitRate>
    <maxFalseAlarm>5.0000000000000000e-01</maxFalseAlarm>
    <weightTrimRate>9.4999999999999996e-01</weightTrimRate>
    <maxDepth>1</maxDepth>
    <maxWeakCount>100</maxWeakCount></stageParams>
  <featureParams>
    <maxCatCount>256</maxCatCount>
    <featSize>1</featSize></featureParams>
  <stageNum>16</stageNum>
  <stages>
    <!-- stage 0 -->
    <_>
      <maxWeakCount>2</maxWeakCount>
      <stageThreshold>-6.1785101890563965e-02</stageThreshold>
      <weakClassifiers>
        <_>
          <internalNodes>
            0 -1 34 -104859148 -214319082 -1790901857 -74202737
            -1048325901 -503201405 -938489121 -72352849</internalNodes>
          <leafValues>
            -9.4892746210098267e-01 9.3951350450515747e-01</leafValues></_>
        <_>
          <internalNodes>
            0 -1 21 -751312898 2102968370 -988786502 -78132868
            -1979469569 -7684096 -1700689238 -290626</internalNodes>
          <leafValues>
            -9.5540851354598999e-01 8.8714236021041870e-01</leafValues></_></weakClassifiers></_>
    <!-- stage 1 -->
    <_>
      <maxWeakCount>3</maxWeakCount>
      <stageThreshold>-8.2443529367446899e-01</stageThreshold>
      <weakClassifiers>
        <_>
          <internalNodes>
            0 -1 16 -167782433 -111950849 -13315 -536883201 -268448001
            -268447745 -822161665 -822097153</internalNodes>
          <leafValues>
            -8.5163778066635132e-01 9.4664841890335083e-01</leafValues></_>
        <_>
          <internalNodes>
            0 -1 29 -1761111563 -577167023 17862781 -651079535
            -660014920 -930576252 -888423782 -2012489493</internalNodes>
          <leafValues>
            -7.9891389608383179e-01 8.6882710456848145e-01</leafValues></_>
        <_>
          <internalNodes>
            0 -1 23 -143662081 -1010057070 51544339 -913374577
            -1031094103 -890370912 -1019050850 -923811601</internalNodes>
          <leafValues>
            -8.4162455797195435e-01 8.4422600269317627e-01</leafValues></_></weakClassifiers></_>
    <!-- stage 2 -->
    <_>
      <maxWeakCount>3</maxWeakCount>
      <stageThreshold>-8.7583887577056885e-01</stageThreshold>
      <weakClassifiers>
        <_>
          <internalNodes>
            0 -1 35 -34078721 -17302025 -90707819 -5000057 -1372653359
            -275197309 -1046372143 -134745165</internalNodes>
          <leafValues>
            -9.0598291158676147e-01 8.6189258098602295e-01</leafValues></_>
        <_>
          <internalNodes>
            0 -1 14 -7144965 -227356201 1897628083 -16378 -560233493
            -218128248 -1345594961 -67147590</internalNodes>
          <leafValues>
            -8.0437076091766357e-01 8.3503699302673340e-01</leafValues></_>
        <_>
          <internalNodes>
            0 -1 4 -201327617 -2 2147482623 -67109889 -1073759237
            872414207 -201936133 854831611</internalNodes>
          <leafValues>
            -8.0099332332611084e-01 8.3451479673385620e-01</leafValues></_></weakClassifiers></_>
    <!-- stage 3 -->
    <_>
      <maxWeakCount>3</maxWeakCount>
      <stageThreshold>-8.0742484331130981e-01</stageThreshold>
      <weakClassifiers>
        <_>
          <internalNodes>
            0 -1 32 -4194369 -15204437 -12583137 -12583161 -12582993
            -12583109 -12583125 -15728881</internalNodes>
          <leafValues>
            -8.2266008853912354e-01 8.9898991584777832e-01</leafValues></_>
        <_>
          <internalNodes>
            0 -1 40 -2097153 -741740068 -938945636 -74655412 -922049848
            -1157593472 -925316216 -36769286</internalNodes>
          <leafValues>
            -7.9757690429687500e-01 8.4514659643173218e-01</leafValues></_>
        <_>
          <internalNodes>
            0 -1 20 -1584197 -617087265 -263105165 991048074 1632293051
            -1987131255 -968630101 -542135573</internalNodes>
          <leafValues>
            -8.1055200099945068e-01 8.1281220912933350e-01</leafValues></_></weakClassifiers></_>
    <!-- stage 4 -->
    <_>
      <maxWeakCount>2</maxWeakCount>
      <stageThreshold>-3.5518299788236618e-02</stageThreshold>
      <weakClassifiers>
        <_>
          <internalNodes>
            0 -1 31 -251 -1049281 1728830463 -9217 -2044800129 -32913 -1
            -1049601</internalNodes>
          <leafValues>
            -7.9624134302139282e-01 8.7642711400985718e-01</leafValues></_>
        <_>
          <internalNodes>
            0 -1 19 -10488833 -681585893 285330203 -662515694 -339152193
            -661810047 -159278401 -1060837121</internalNodes>
          <leafValues>
            -8.7982714176177979e-01 7.6072305440902710e-01</leafValues></_></weakClassifiers></_>
    <!-- stage 5 -->
    <_>
      <maxWeakCount>3</maxWeakCount>
      <stageThreshold>-9.2065715789794922e-01</stageThreshold>
      <weakClassifiers>
        <_>
          <internalNodes>
            0 -1 3 -202116101 -1326319621 -67126529 -16385 -134220805
            -252184587 -67108869 -67109889</internalNodes>
          <leafValues>
            -7.6084858179092407e-01 8.8106632232666016e-01</leafValues></_>
        <_>
          <internalNodes>
            0 -1 37 -404226077 -708320751 -2118033149 -947682285
            -976772669 -2122203007 1187044067 -138155325</internalNodes>
          <leafValues>
            -8.5872364044189453e-01 7.5413286685943604e-01</leafValues></_>
        <_>
          <internalNodes>
            0 -1 36 -550241281 -551566825 419496369 -643493112
            -1727411713 -54884152 -913704804 -926097208</internalNodes>
          <leafValues>
            -8.7791645526885986e-01 6.9891512393951416e-01</leafValues></_></weakClassifiers></_>
    <!-- stage 6 -->
    <_>
      <maxWeakCount>2</maxWeakCount>
      <stageThreshold>-4.1675664484500885e-02</stageThreshold>
      <weakClassifiers>
        <_>
          <internalNodes>
            0 -1 27 -33557505 -775946305 -4460397 -12582997 -12582977
            2134835117 -534773953 -80741569</internalNodes>
          <leafValues>
            -7.6204520463943481e-01 8.5974377393722534e-01</leafValues></_>
        <_>
          <internalNodes>
            0 -1 25 -653159945 1964351889 -1258219179 -40363760
            -2010611287 -1920431988 -2003793763 -1937209140</internalNodes>
          <leafValues>
            -8.4320235252380371e-01 7.2036957740783691e-01</leafValues></_></weakClassifiers></_>
    <!-- stage 7 -->
    <_>
      <maxWeakCount>3</maxWeakCount>
      <stageThreshold>-9.2910593748092651e-01</stageThreshold>
      <weakClassifiers>
        <_>
          <internalNodes>
            0 -1 18 -73402625 -545001325 -771713453 -589893437 -7646577
            -402010112 -259261713 -924583729</internalNodes>
          <leafValues>
            -8.7674421072006226e-01 7.6463413238525391e-01</leafValues></_>
        <_>
          <internalNodes>
            0 -1 5 -714099405 -620558701 -582888173 1068703519
            -1465282991 -877975230 -90442753 -68436289</internalNodes>
          <leafValues>
            -7.5399160385131836e-01 8.2794737815856934e-01</leafValues></_>
        <_>
          <internalNodes>
            0 -1 28 -785133547 -753585902 285295890 957355057 -338519591
            -612204352 -370413893 -22312807</internalNodes>
          <leafValues>
            -8.0616706609725952e-01 7.0162987709045410e-01</leafValues></_></weakClassifiers></_>
    <!-- stage 8 -->
    <_>
      <maxWeakCount>3</maxWeakCount>
      <stageThreshold>-8.1805455684661865e-01</stageThreshold>
      <weakClassifiers>
        <_>
          <internalNodes>
            0 -1 22 -134479877 -71566341 -262149 -206310478 -5 -67386381
            -539230213 -68955149</internalNodes>
          <leafValues>
            -7.9237288236618042e-01 8.0205655097961426e-01</leafValues></_>
        <_>
          <internalNodes>
            0 -1 6 -749735429 -1843310317 1493535069 -1282451299
            -1701970433 -225869793 -1450444129 -71314513</internalNodes>
          <leafValues>
            -6.9619399309158325e-01 8.0769497156143188e-01</leafValues></_>
        <_>
          <internalNodes>
            0 -1 38 -67633153 -913848853 -1035976457 -985299978
            -116528985 -251625343 -901396444 -143137817</internalNodes>
          <leafValues>
            -8.8882052898406982e-01 6.7051231861114502e-01</leafValues></_></weakClassifiers></_>
    <!-- stage 9 -->
    <_>
      <maxWeakCount>3</maxWeakCount>
      <stageThreshold>-9.6089076995849609e-01</stageThreshold>
      <weakClassifiers>
        <_>
          <internalNodes>
            0 -1 10 -17478 -263173 -81921 -67109889 -807141889 -1 -16385
            -16385</internalNodes>
          <leafValues>
            -8.1061393022537231e-01 8.3105915784835815e-01</leafValues></_>
        <_>
          <internalNodes>
            0 -1 2 2112610271 2002237783 1368757215 1327493393
            -980302853 1000751546 1667855327 1266548415</internalNodes>
          <leafValues>
            -7.9947012662887573e-01 7.1231001615524292e-01</leafValues></_>
        <_>
          <internalNodes>
            0 -1 24 -241834065 -753604812 -1006319335 -947796093
            -352070729 -904822526 -948771846 -808653205</internalNodes>
          <leafValues>
            -8.6258685588836670e-01 6.6595190763473511e-01</leafValues></_></weakClassifiers></_>
    <!-- stage 10 -->
    <_>
      <maxWeakCount>3</maxWeakCount>
      <stageThreshold>-8.3275026082992554e-01</stageThreshold>
      <weakClassifiers>
        <_>
          <internalNodes>
            0 -1 17 -769 -769 -8449 -570434305 -117441281 -16786181
            -16779009 -654313217</internalNodes>
          <leafValues>
            -7.5650364160537720e-01 7.9727095365524292e-01</leafValues></_>
        <_>
          <internalNodes>
            0 -1 0 -175137793 2079965519 -1857172625 -982296289
            -393683315 -1639216503 -754775045 1936181983</internalNodes>
          <leafValues>
            -7.4101024866104126e-01 7.5283604860305786e-01</leafValues></_>
        <_>
          <internalNodes>
            0 -1 41 -607659073 -1819033086 285697590 -609741308
            -338695217 -70372702 -58001190 -18037560</internalNodes>
          <leafValues>
            -8.0457949638366699e-01 6.6476362943649292e-01</leafValues></_></weakClassifiers></_>
    <!-- stage 11 -->
    <_>
      <maxWeakCount>3</maxWeakCount>
      <stageThreshold>-7.2201675176620483e-01</stageThreshold>
      <weakClassifiers>
        <_>
          <internalNodes>
            0 -1 11 1766290224 -183159309 -1794930345 -15733761
            688884735 -809695013 -1349546373 -9265</internalNodes>
          <leafValues>
            -7.9694324731826782e-01 7.7651512622833252e-01</leafValues></_>
        <_>
          <internalNodes>
            0 -1 26 -150994945 -33685505 -268435457 -1358954497
            -201394433 -33554433 -201335041 -1325409281</internalNodes>
          <leafValues>
            -6.5632015466690063e-01 7.9297918081283569e-01</leafValues></_>
        <_>
          <internalNodes>
            0 -1 9 622695799 -48815849 268473501 -1169309555 -1337942925
            -13421711 38306014 -12845185</internalNodes>
          <leafValues>
            -6.8660467863082886e-01 7.3124665021896362e-01</leafValues></_></weakClassifiers></_>
    <!-- stage 12 -->
    <_>
      <maxWeakCount>2</maxWeakCount>
      <stageThreshold>-9.6481747925281525e-02</stageThreshold>
      <weakClassifiers>
        <_>
          <internalNodes>
            0 -1 40 -1108350017 2113903550 889626270 -674719032
            -1414599254 -192380672 -49502056 -6490998</internalNodes>
          <leafValues>
            -7.8206580877304077e-01 7.3440396785736084e-01</leafValues></_>
        <_>
          <internalNodes>
            0 -1 12 -82610160 -217069918 -207751425 -277111969
            -368407873 -1693570833 -7349253 -4195333</internalNodes>
          <leafValues>
            -8.3088570833206177e-01 7.1292752027511597e-01</leafValues></_></weakClassifiers></_>
    <!-- stage 13 -->
    <_>
      <maxWeakCount>4</maxWeakCount>
      <stageThreshold>-2.1805442869663239e-01</stageThreshold>
      <weakClassifiers>
        <_>
          <internalNodes>
            0 -1 1 -201334785 -252054849 -1025 -4194305 -201342977
            -201984013 -34080769 -35841</internalNodes>
          <leafValues>
            -6.4373230934143066e-01 8.2209867238998413e-01</leafValues></_>
        <_>
          <internalNodes>
            0 -1 33 -621813793 -557590907 -1672160811 -851059519
            -1914852139 -558399418 -1031491902 -555491641</internalNodes>
          <leafValues>
            -7.7448427677154541e-01 7.0283162593841553e-01</leafValues></_>
        <_>
          <internalNodes>
            0 -1 13 -672138305 -712189544 -1056226381 -656482240
            -393614641 -1572282238 -174356997 -2109691254</internalNodes>
          <leafValues>
            -8.1642919778823853e-01 6.2880945205688477e-01</leafValues></_>
        <_>
          <internalNodes>
            0 -1 15 1496535935 1073905683 1464062847 -1686208165
            822642859 -1726365558 -628359425 48940538</internalNodes>
          <leafValues>
            -8.1901210546493530e-01 5.7135272026062012e-01</leafValues></_></weakClassifiers></_>
    <!-- stage 14 -->
    <_>
      <maxWeakCount>4</maxWeakCount>
      <stageThreshold>-1.4541842937469482e+00</stageThreshold>
      <weakClassifiers>
        <_>
          <internalNodes>
            0 -1 39 1246739423 -351293289 -1232633321 -1115181179
            -1429754969 -2021551083 -1349802329 -406341977</internalNodes>
          <leafValues>
            -8.1904762983322144e-01 7.1566265821456909e-01</leafValues></_>
        <_>
          <internalNodes>
            0 -1 8 -1014935503 1396912385 -1929030177 -539152291
            -506805051 -141621479 -1181749857 -3141</internalNodes>
          <leafValues>
            -6.8704134225845337e-01 7.7247518301010132e-01</leafValues></_>
        <_>
          <internalNodes>
            0 -1 30 -103884551 -607080230 -2007985511 -1168601037
            -913128040 -1233084270 -1709651048 -1168380712</internalNodes>
          <leafValues>
            -7.2881191968917847e-01 6.8050318956375122e-01</leafValues></_>
        <_>
          <internalNodes>
            0 -1 42 -676351237 -74514017 -754777849 1500602379
            -208031555 1702986921 -243149636 -171583079</internalNodes>
          <leafValues>
            -7.5399369001388550e-01 6.3490504026412964e-01</leafValues></_></weakClassifiers></_>
    <!-- stage 15 -->
    <_>
      <maxWeakCount>4</maxWeakCount>
      <stageThreshold>-1.8292537331581116e-01</stageThreshold>
      <weakClassifiers>
        <_>
          <internalNodes>
            0 -1 23 -247989253 -83505545 -2126394859 -956053229
            -519977453 -2027831294 1694745547 -812920945</internalNodes>
          <leafValues>
            -7.7371430397033691e-01 7.2430771589279175e-01</leafValues></_>
        <_>
          <internalNodes>
            0 -1 7 2013132791 830027763 1609777151 1442822391 -570558465
            1912602623 -1196294149 -134217985</internalNodes>
          <leafValues>
            -6.8615698814392090e-01 7.6156169176101685e-01</leafValues></_>
        <_>
          <internalNodes>
            0 -1 36 -2137498977 -636321750 -2147480799 51478848
            -376525329 -393703267 -1668802419 -1998788408</internalNodes>
          <leafValues>
            -8.5489904880523682e-01 6.2067347764968872e-01</leafValues></_>
        <_>
          <internalNodes>
            0 -1 43 -149818469 -509919073 286458131 -485015213
            1103343807 -1031542743 -2143219582 1345832603</internalNodes>
          <leafValues>
            -7.1201002597808838e-01 6.8412625789642334e-01</leafValues></_></weakClassifiers></_></stages>
  <features>
    <_>
      <rect>
        4 0 13 12</rect></_>
    <_>
      <rect>
        4 19 14 3</rect></_>
    <_>
      <rect>
        6 15 14 11</rect></_>
    <_>
      <rect>
        8 18 13 4</rect></_>
    <_>
      <rect>
        10 6 12 9</rect></_>
    <_>
      <rect>
        10 19 8 4</rect></_>
    <_>
      <rect>
        10 19 12 4</rect></_>
    <_>
      <rect>
        12 15 11 7</rect></_>
    <_>
      <rect>
        13 14 9 7</rect></_>
    <_>
      <rect>
        13 24 4 2</rect></_>
    <_>
      <rect>
        18 16 5 6</rect></_>
    <_>
      <rect>
        18 18 6 4</rect></_>
    <_>
      <rect>
        19 19 5 4</rect></_>
    <_>
      <rect>
        19 20 1 2</rect></_>
    <_>
      <rect>
        19 20 2 3</rect></_>
    <_>
      <rect>
        19 25 4 2</rect></_>
    <_>
      <rect>
        20 8 2 6</rect></_>
    <_>
      <rect>
        20 9 1 6</rect></_>
    <_>
      <rect>
        20 18 1 2</rect></_>
    <_>
      <rect>
        20 19 1 2</rect></_>
    <_>
      <rect>
        20 22 2 3</rect></_>
    <_>
      <rect>
        20 23 3 2</rect></_>
    <_>
      <rect>
        21 11 5 5</rect></_>
    <_>
      <rect>
        21 15 1 3</rect></_>
    <_>
      <rect>
        21 18 1 2</rect></_>
    <_>
      <rect>
        21 25 5 1</rect></_>
    <_>
      <rect>
        22 2 8 10</rect></_>
    <_>
      <rect>
        22 8 2 7</rect></_>
    <_>
      <rect>
        22 20 3 1</rect></_>
    <_>
      <rect>
        22 25 7 1</rect></_>
    <_>
      <rect>
        23 19 2 1</rect></_>
    <_>
      <rect>
        23 20 2 2</rect></_>
    <_>
      <rect>
        24 10 1 6</rect></_>
    <_>
      <rect>
        24 17 2 3</rect></_>
    <_>
      <rect>
        24 18 1 4</rect></_>
    <_>
      <rect>
        24 18 2 3</rect></_>
    <_>
      <rect>
        24 25 2 1</rect></_>
    <_>
      <rect>
        25 15 1 4</rect></_>
    <_>
      <rect>
        25 18 1 3</rect></_>
    <_>
      <rect>
        25 18 2 3</rect></_>
    <_>
      <rect>
        26 20 1 2</rect></_>
    <_>
      <rect>
        26 22 1 2</rect></_>
    <_>
      <rect>
        27 21 1 2</rect></_>
    <_>
      <rect>
        30 14 4 6</rect></_></features></cascade>
</opencv_storage>
