<?xml version="1.0"?>
<opencv_storage>
<stage14>
  <maxWeakCount>4</maxWeakCount>
  <stageThreshold>-1.4541842937469482e+00</stageThreshold>
  <weakClassifiers>
    <_>
      <internalNodes>
        0 -1 111421 1246739423 -351293289 -1232633321 -1115181179
        -1429754969 -2021551083 -1349802329 -406341977</internalNodes>
      <leafValues>
        -8.1904762983322144e-01 7.1566265821456909e-01</leafValues></_>
    <_>
      <internalNodes>
        0 -1 69101 -1014935503 1396912385 -1929030177 -539152291
        -506805051 -141621479 -1181749857 -3141</internalNodes>
      <leafValues>
        -6.8704134225845337e-01 7.7247518301010132e-01</leafValues></_>
    <_>
      <internalNodes>
        0 -1 105713 -103884551 -607080230 -2007985511 -1168601037
        -913128040 -1233084270 -1709651048 -1168380712</internalNodes>
      <leafValues>
        -7.2881191968917847e-01 6.8050318956375122e-01</leafValues></_>
    <_>
      <internalNodes>
        0 -1 116870 -676351237 -74514017 -754777849 1500602379
        -208031555 1702986921 -243149636 -171583079</internalNodes>
      <leafValues>
        -7.5399369001388550e-01 6.3490504026412964e-01</leafValues></_></weakClassifiers></stage14>
</opencv_storage>
